314
0.559572,-0.383158,0.729942,1.68485,
-0.763676,-0.824176,0.637294,0.205209,
-0.848056,-0.460409,0.782846,0.300816,
-0.905832,0.259644,-0.417945,0.505679,
-0.617039,-0.121412,-0.531292,2.02066,

-0.715303,0.365802,-0.731456,-0.930013,-0.712929,-6.18765,
0.803445,0.532074,0.275592,-0.016943,0.595784,2.85814,
-0.667565,0.823533,0.0757214,0.964016,-0.523698,-0.409056,
-0.855522,-0.47741,-0.51611,-0.259516,0.0116634,0.254545,
-0.76631,-0.552114,-0.528325,0.798634,-0.922034,-6.27896,
0.131208,-0.665424,-0.450803,0.804909,0.843434,-0.45365,
-0.203195,-0.699577,0.185884,-0.609952,-0.84366,-2.38913,

-0.416255,-0.725722,0.141197,-0.780482,-0.405357,-0.111959,-0.319216,-11.2564,
-0.140677,0.124794,-0.46195,0.716933,0.24265,-0.324572,-0.870267,0.984247,
0.0865238,-0.414743,-0.0174389,-0.363577,0.75209,0.428075,-0.116283,1.72289,
-0.00951593,-0.233187,0.65548,-0.126961,0.329263,0.0768423,-0.623288,-3.54181,
0.0238659,0.297875,-0.516968,-0.31483,0.702263,0.10668,-0.328985,-6.39834,
-0.269385,-0.512985,0.173125,0.614808,0.0757705,-0.379971,-0.30401,-3.95631,

0.298335,0.30351,0.629295,-0.688082,0.152858,0.0906796,5.60682,
0.0191044,0.0438913,0.63799,-0.422465,-0.284569,-0.308601,1.71681,
